<?xml version="1.0"?>
<opencv_storage>
<cascade>
  <stageType>BOOST</stageType>
  <featureType>HOG</featureType>
  <height>48</height>
  <width>48</width>
  <stageParams>
    <boostType>GAB</boostType>
    <minHitRate>9.9500000476837158e-01</minHitRate>
    <maxFalseAlarm>5.0000000000000000e-01</maxFalseAlarm>
    <weightTrimRate>9.4999999999999996e-01</weightTrimRate>
    <maxDepth>1</maxDepth>
    <maxWeakCount>100</maxWeakCount></stageParams>
  <featureParams>
    <maxCatCount>0</maxCatCount>
    <featSize>36</featSize></featureParams>
  <stageNum>15</stageNum>
  <stages>
    <!-- stage 0 -->
    <_>
      <maxWeakCount>2</maxWeakCount>
      <stageThreshold>1.4769344031810760e-01</stageThreshold>
      <weakClassifiers>
        <_>
          <internalNodes>
            0 -1 26 9.2500466853380203e-03</internalNodes>
          <leafValues>
            9.5789474248886108e-01 -7.4545454978942871e-01</leafValues></_>
        <_>
          <internalNodes>
            0 -1 6 6.8290144205093384e-02</internalNodes>
          <leafValues>
            -8.1020128726959229e-01 9.0532839298248291e-01</leafValues></_></weakClassifiers></_>
    <!-- stage 1 -->
    <_>
      <maxWeakCount>2</maxWeakCount>
      <stageThreshold>-5.6762326508760452e-02</stageThreshold>
      <weakClassifiers>
        <_>
          <internalNodes>
            0 -1 22 2.0105442032217979e-02</internalNodes>
          <leafValues>
            -8.3333331346511841e-01 8.8235294818878174e-01</leafValues></_>
        <_>
          <internalNodes>
            0 -1 11 2.0554080605506897e-02</internalNodes>
          <leafValues>
            -8.6112642288208008e-01 7.7657103538513184e-01</leafValues></_></weakClassifiers></_>
    <!-- stage 2 -->
    <_>
      <maxWeakCount>2</maxWeakCount>
      <stageThreshold>-4.7868262976408005e-02</stageThreshold>
      <weakClassifiers>
        <_>
          <internalNodes>
            0 -1 40 1.8668016418814659e-02</internalNodes>
          <leafValues>
            9.2079210281372070e-01 -8.7755101919174194e-01</leafValues></_>
        <_>
          <internalNodes>
            0 -1 15 2.3527102544903755e-02</internalNodes>
          <leafValues>
            -9.6866035461425781e-01 8.3234059810638428e-01</leafValues></_></weakClassifiers></_>
    <!-- stage 3 -->
    <_>
      <maxWeakCount>2</maxWeakCount>
      <stageThreshold>8.9170657098293304e-02</stageThreshold>
      <weakClassifiers>
        <_>
          <internalNodes>
            0 -1 38 5.5982775986194611e-02</internalNodes>
          <leafValues>
            -7.0833331346511841e-01 8.2352942228317261e-01</leafValues></_>
        <_>
          <internalNodes>
            0 -1 27 6.7810397595167160e-03</internalNodes>
          <leafValues>
            8.6935275793075562e-01 -7.3435872793197632e-01</leafValues></_></weakClassifiers></_>
    <!-- stage 4 -->
    <_>
      <maxWeakCount>2</maxWeakCount>
      <stageThreshold>-2.7329612057656050e-03</stageThreshold>
      <weakClassifiers>
        <_>
          <internalNodes>
            0 -1 4 5.0120711326599121e-02</internalNodes>
          <leafValues>
            -6.6666668653488159e-01 8.0392158031463623e-01</leafValues></_>
        <_>
          <internalNodes>
            0 -1 8 4.2244628071784973e-02</internalNodes>
          <leafValues>
            -8.0665451288223267e-01 6.9897317886352539e-01</leafValues></_></weakClassifiers></_>
    <!-- stage 5 -->
    <_>
      <maxWeakCount>2</maxWeakCount>
      <stageThreshold>-1.5310274437069893e-02</stageThreshold>
      <weakClassifiers>
        <_>
          <internalNodes>
            0 -1 33 4.0174275636672974e-02</internalNodes>
          <leafValues>
            -6.6037738323211670e-01 8.7628865242004395e-01</leafValues></_>
        <_>
          <internalNodes>
            0 -1 12 1.6210233792662621e-02</internalNodes>
          <leafValues>
            -8.9159893989562988e-01 7.3802626132965088e-01</leafValues></_></weakClassifiers></_>
    <!-- stage 6 -->
    <_>
      <maxWeakCount>2</maxWeakCount>
      <stageThreshold>-2.0938707888126373e-01</stageThreshold>
      <weakClassifiers>
        <_>
          <internalNodes>
            0 -1 41 1.5234824270009995e-02</internalNodes>
          <leafValues>
            -8.9999997615814209e-01 7.8181821107864380e-01</leafValues></_>
        <_>
          <internalNodes>
            0 -1 17 1.6998901963233948e-02</internalNodes>
          <leafValues>
            -8.0158865451812744e-01 6.9061291217803955e-01</leafValues></_></weakClassifiers></_>
    <!-- stage 7 -->
    <_>
      <maxWeakCount>4</maxWeakCount>
      <stageThreshold>-1.2532534599304199e+00</stageThreshold>
      <weakClassifiers>
        <_>
          <internalNodes>
            0 -1 35 1.5065019950270653e-02</internalNodes>
          <leafValues>
            7.4311923980712891e-01 -7.5609755516052246e-01</leafValues></_>
        <_>
          <internalNodes>
            0 -1 23 1.0082911700010300e-02</internalNodes>
          <leafValues>
            8.1683593988418579e-01 -6.3602066040039062e-01</leafValues></_>
        <_>
          <internalNodes>
            0 -1 28 6.2013201415538788e-02</internalNodes>
          <leafValues>
            -5.7342773675918579e-01 7.5287920236587524e-01</leafValues></_>
        <_>
          <internalNodes>
            0 -1 18 4.6823963522911072e-02</internalNodes>
          <leafValues>
            -8.1358253955841064e-01 7.1229249238967896e-01</leafValues></_></weakClassifiers></_>
    <!-- stage 8 -->
    <_>
      <maxWeakCount>4</maxWeakCount>
      <stageThreshold>2.8215885162353516e-01</stageThreshold>
      <weakClassifiers>
        <_>
          <internalNodes>
            0 -1 14 1.7740145325660706e-02</internalNodes>
          <leafValues>
            -8.2352942228317261e-01 6.7241376638412476e-01</leafValues></_>
        <_>
          <internalNodes>
            0 -1 2 1.0387045145034790e-01</internalNodes>
          <leafValues>
            -4.7904545068740845e-01 9.5570969581604004e-01</leafValues></_>
        <_>
          <internalNodes>
            0 -1 29 1.5574282966554165e-02</internalNodes>
          <leafValues>
            7.8295832872390747e-01 -5.5307757854461670e-01</leafValues></_>
        <_>
          <internalNodes>
            0 -1 10 4.5907229185104370e-02</internalNodes>
          <leafValues>
            -6.0295873880386353e-01 8.0177533626556396e-01</leafValues></_></weakClassifiers></_>
    <!-- stage 9 -->
    <_>
      <maxWeakCount>4</maxWeakCount>
      <stageThreshold>-9.3598818778991699e-01</stageThreshold>
      <weakClassifiers>
        <_>
          <internalNodes>
            0 -1 16 1.9303496927022934e-02</internalNodes>
          <leafValues>
            -5.3191488981246948e-01 7.2815531492233276e-01</leafValues></_>
        <_>
          <internalNodes>
            0 -1 13 2.3523896932601929e-02</internalNodes>
          <leafValues>
            -5.5059248208999634e-01 7.8534334897994995e-01</leafValues></_>
        <_>
          <internalNodes>
            0 -1 5 1.7210664227604866e-03</internalNodes>
          <leafValues>
            7.8864181041717529e-01 -5.7679897546768188e-01</leafValues></_>
        <_>
          <internalNodes>
            0 -1 1 2.5667168200016022e-02</internalNodes>
          <leafValues>
            -6.4212268590927124e-01 6.1057674884796143e-01</leafValues></_></weakClassifiers></_>
    <!-- stage 10 -->
    <_>
      <maxWeakCount>4</maxWeakCount>
      <stageThreshold>-7.3530547320842743e-02</stageThreshold>
      <weakClassifiers>
        <_>
          <internalNodes>
            0 -1 34 3.8782566785812378e-02</internalNodes>
          <leafValues>
            -7.2222220897674561e-01 6.6666668653488159e-01</leafValues></_>
        <_>
          <internalNodes>
            0 -1 3 6.9025427103042603e-02</internalNodes>
          <leafValues>
            -5.5811327695846558e-01 7.4341541528701782e-01</leafValues></_>
        <_>
          <internalNodes>
            0 -1 39 4.1582196950912476e-02</internalNodes>
          <leafValues>
            -7.3620218038558960e-01 6.0944813489913940e-01</leafValues></_>
        <_>
          <internalNodes>
            0 -1 30 4.9646541476249695e-02</internalNodes>
          <leafValues>
            -6.4095830917358398e-01 6.4147841930389404e-01</leafValues></_></weakClassifiers></_>
    <!-- stage 11 -->
    <_>
      <maxWeakCount>2</maxWeakCount>
      <stageThreshold>1.4257813990116119e-01</stageThreshold>
      <weakClassifiers>
        <_>
          <internalNodes>
            0 -1 6 6.9767855107784271e-02</internalNodes>
          <leafValues>
            -6.0975611209869385e-01 6.8807339668273926e-01</leafValues></_>
        <_>
          <internalNodes>
            0 -1 7 3.0358778312802315e-03</internalNodes>
          <leafValues>
            7.5233423709869385e-01 -5.3717696666717529e-01</leafValues></_></weakClassifiers></_>
    <!-- stage 12 -->
    <_>
      <maxWeakCount>4</maxWeakCount>
      <stageThreshold>-2.7323076128959656e-01</stageThreshold>
      <weakClassifiers>
        <_>
          <internalNodes>
            0 -1 19 2.4737844243645668e-02</internalNodes>
          <leafValues>
            -5.0000000000000000e-01 7.2549021244049072e-01</leafValues></_>
        <_>
          <internalNodes>
            0 -1 32 3.1107064336538315e-02</internalNodes>
          <leafValues>
            -8.4714829921722412e-01 5.8327037096023560e-01</leafValues></_>
        <_>
          <internalNodes>
            0 -1 0 1.5764623880386353e-02</internalNodes>
          <leafValues>
            -7.9908859729766846e-01 4.7342839837074280e-01</leafValues></_>
        <_>
          <internalNodes>
            0 -1 37 1.0684709995985031e-02</internalNodes>
          <leafValues>
            4.6070474386215210e-01 -8.2992947101593018e-01</leafValues></_></weakClassifiers></_>
    <!-- stage 13 -->
    <_>
      <maxWeakCount>4</maxWeakCount>
      <stageThreshold>-4.1732975840568542e-01</stageThreshold>
      <weakClassifiers>
        <_>
          <internalNodes>
            0 -1 22 1.7342653125524521e-02</internalNodes>
          <leafValues>
            -8.1250000000000000e-01 6.4406782388687134e-01</leafValues></_>
        <_>
          <internalNodes>
            0 -1 31 1.3433019630610943e-02</internalNodes>
          <leafValues>
            -8.3327329158782959e-01 4.9943190813064575e-01</leafValues></_>
        <_>
          <internalNodes>
            0 -1 24 3.9509804919362068e-03</internalNodes>
          <leafValues>
            7.4036538600921631e-01 -5.8627295494079590e-01</leafValues></_>
        <_>
          <internalNodes>
            0 -1 9 1.9687913358211517e-02</internalNodes>
          <leafValues>
            -6.4602684974670410e-01 4.8201128840446472e-01</leafValues></_></weakClassifiers></_>
    <!-- stage 14 -->
    <_>
      <maxWeakCount>4</maxWeakCount>
      <stageThreshold>-2.1003685891628265e-02</stageThreshold>
      <weakClassifiers>
        <_>
          <internalNodes>
            0 -1 20 1.3050950132310390e-02</internalNodes>
          <leafValues>
            -6.0975611209869385e-01 6.8807339668273926e-01</leafValues></_>
        <_>
          <internalNodes>
            0 -1 21 1.9796043634414673e-02</internalNodes>
          <leafValues>
            -6.0067588090896606e-01 6.6589790582656860e-01</leafValues></_>
        <_>
          <internalNodes>
            0 -1 25 1.2788170948624611e-02</internalNodes>
          <leafValues>
            -6.7774897813796997e-01 6.1658447980880737e-01</leafValues></_>
        <_>
          <internalNodes>
            0 -1 36 2.2003386169672012e-02</internalNodes>
          <leafValues>
            -6.5909928083419800e-01 6.0060346126556396e-01</leafValues></_></weakClassifiers></_></stages>
  <features>
    <_>
      <rect>
        0 0 8 8 18</rect></_>
    <_>
      <rect>
        0 28 8 8 26</rect></_>
    <_>
      <rect>
        8 0 8 8 12</rect></_>
    <_>
      <rect>
        12 4 8 8 30</rect></_>
    <_>
      <rect>
        12 8 8 8 21</rect></_>
    <_>
      <rect>
        12 32 8 8 33</rect></_>
    <_>
      <rect>
        16 0 8 8 3</rect></_>
    <_>
      <rect>
        16 32 8 8 28</rect></_>
    <_>
      <rect>
        20 0 8 8 3</rect></_>
    <_>
      <rect>
        32 0 8 8 5</rect></_>
    <_>
      <rect>
        32 32 8 8 17</rect></_>
    <_>
      <rect>
        0 8 8 16 26</rect></_>
    <_>
      <rect>
        0 12 8 16 0</rect></_>
    <_>
      <rect>
        4 4 8 16 1</rect></_>
    <_>
      <rect>
        4 8 8 16 0</rect></_>
    <_>
      <rect>
        8 4 8 16 30</rect></_>
    <_>
      <rect>
        24 0 8 16 16</rect></_>
    <_>
      <rect>
        24 4 8 16 15</rect></_>
    <_>
      <rect>
        24 8 8 16 21</rect></_>
    <_>
      <rect>
        28 4 8 16 15</rect></_>
    <_>
      <rect>
        28 16 8 16 11</rect></_>
    <_>
      <rect>
        32 0 8 16 7</rect></_>
    <_>
      <rect>
        32 12 8 16 35</rect></_>
    <_>
      <rect>
        0 12 16 8 15</rect></_>
    <_>
      <rect>
        0 16 16 8 16</rect></_>
    <_>
      <rect>
        0 16 16 8 24</rect></_>
    <_>
      <rect>
        0 32 16 8 34</rect></_>
    <_>
      <rect>
        0 32 16 8 35</rect></_>
    <_>
      <rect>
        4 0 16 8 13</rect></_>
    <_>
      <rect>
        4 28 16 8 20</rect></_>
    <_>
      <rect>
        4 32 16 8 22</rect></_>
    <_>
      <rect>
        8 4 16 8 16</rect></_>
    <_>
      <rect>
        8 4 16 8 30</rect></_>
    <_>
      <rect>
        8 32 16 8 30</rect></_>
    <_>
      <rect>
        12 0 16 8 13</rect></_>
    <_>
      <rect>
        12 16 16 8 1</rect></_>
    <_>
      <rect>
        16 0 16 8 15</rect></_>
    <_>
      <rect>
        16 16 16 8 8</rect></_>
    <_>
      <rect>
        0 16 16 16 12</rect></_>
    <_>
      <rect>
        8 4 16 16 22</rect></_>
    <_>
      <rect>
        8 16 16 16 19</rect></_>
    <_>
      <rect>
        16 8 16 16 16</rect></_></features></cascade>
</opencv_storage>
